word,0,1,2,3,4,5,6,7,8,9,10,11,12,13,14,15,16,17,18,19,20,21,22,23,24,25,26,27,28,29,30,31,32,33,34,35,36,37,38,39,40,41,42,43,44,45,46,47,48,49,50,51,52,53,54,55,56,57,58,59,60,61,62,63,64,65,66,67,68,69,70,71,72,73,74,75,76,77,78,79,80,81,82,83,84,85,86,87,88,89,90,91,92,93,94,95,96,97,98,99,100,101,102,103,104,105,106,107,108,109,110,111,112,113,114,115,116,117,118,119,120,121,122,123,124,125,126,127,128,129,130,131,132,133,134,135,136,137,138,139,140,141,142,143,144,145,146,147,148,149,150,151,152,153,154,155,156,157,158,159,160,161,162,163,164,165,166,167,168,169,170,171,172,173,174,175,176,177,178,179,180,181,182,183,184,185,186,187,188,189,190,191,192,193,194,195,196,197,198,199,200,201,202,203,204,205,206,207,208,209,210,211,212,213,214,215,216,217,218,219,220,221,222,223,224,225,226,227,228,229,230,231,232,233,234,235,236,237,238,239,240,241,242,243,244,245,246,247,248,249,250,251,252,253,254,255,256,257,258,259,260,261,262,263,264,265,266,267,268,269,270,271,272,273,274,275,276,277,278,279,280,281,282,283,284,285,286,287,288,289,290,291,292,293,294,295,296,297,298,299,300,301,302,303,304,305,306,307,308,309,310,311,312,313,314,315,316,317,318,319,320,321,322,323,324,325,326,327,328,329,330,331,332,333,334,335,336,337,338,339,340,341,342,343,344,345,346,347,348,349,350,351,352,353,354,355,356,357,358,359,360,361,362,363,364,365,366,367,368,369,370,371,372,373,374,375,376,377,378,379,380,381,382,383,384,385,386,387,388,389,390,391,392,393,394,395,396,397,398,399,400,401,402,403,404,405,406,407,408,409,410,411,412,413,414,415,416,417,418,419,420,421,422,423,424,425,426,427,428,429,430,431,432,433,434,435,436,437,438,439,440,441,442,443,444,445,446,447,448,449,450,451,452,453,454,455,456,457,458,459,460,461,462,463,464,465,466,467,468,469,470,471,472,473,474,475,476,477,478,479,480,481,482,483,484,485,486,487,488,489,490,491,492,493,494,495,496,497,498,499,500,501,502,503,504,505,506,507,508,509,510,511,512,513,514,515,516,517,518,519,520,521,522,523,524,525,526,527,528,529,530,531,532,533,534,535,536,537,538,539,540,541,542,543,544,545,546,547,548,549,550,551,552,553,554,555,556,557,558,559,560,561,562,563,564,565,566,567,568,569,570,571,572,573,574,575,576,577,578,579,580,581,582,583,584,585,586,587,588,589,590,591,592,593,594,595,596,597,598,599,600,601,602,603,604,605,606,607,608,609,610,611,612,613,614,615,616,617,618,619,620,621,622,623,624,625,626,627,628,629,630,631,632,633,634,635,636,637,638,639,640,641,642,643,644,645,646,647,648,649,650,651,652,653,654,655,656,657,658,659,660,661,662,663,664,665,666,667,668,669,670,671,672,673,674,675,676,677,678,679,680,681,682,683,684,685,686,687,688,689,690,691,692,693,694,695,696,697,698,699,700,701,702,703,704,705,706,707,708,709,710,711,712,713,714,715,716,717,718,719,720,721,722,723,724,725,726,727,728,729,730,731,732,733,734,735,736,737,738,739,740,741,742,743,744,745,746,747,748,749,750,751,752,753,754,755,756,757,758,759,760,761,762,763,764,765,766,767,768,769,770,771,772,773,774,775,776,777,778,779,780,781,782,783,784,785,786,787,788,789,790,791,792,793,794,795,796,797,798,799,800,801,802,803,804,805,806,807,808,809,810,811,812,813,814,815,816,817,818,819,820,821,822,823,824,825,826,827,828,829,830,831,832,833,834,835,836,837,838,839,840,841,842,843,844,845,846,847,848,849,850,851,852,853,854,855,856,857,858,859,860,861,862,863,864,865,866,867,868,869,870,871,872,873,874,875,876,877,878,879,880,881,882,883,884,885,886,887,888,889,890,891,892,893,894,895,896,897,898,899,900,901,902,903,904,905,906,907,908,909,910,911,912,913,914,915,916,917,918,919,920,921,922,923,924,925,926,927,928,929,930,931,932,933,934,935,936,937,938,939,940,941,942,943,944,945,946,947,948,949,950,951,952,953,954,955,956,957,958,959,960,961,962,963,964,965,966,967,968,969,970,971,972,973,974,975,976,977,978,979,980,981,982,983,984,985,986,987,988,989,990,991,992,993,994,995,996,997,998,999,1000,1001,1002,1003,1004,1005,1006,1007,1008,1009,1010,1011,1012,1013,1014,1015,1016,1017,1018,1019,1020,1021,1022,1023
dog,-0.03195687010884285,-0.014620241709053516,0.020210333168506622,0.0255067627876997,0.01253313384950161,0.02616226300597191,-0.0026927883736789227,-0.025359930470585823,0.029505304992198944,0.05533457547426224,0.0034557890612632036,-0.05348868668079376,-0.04025286063551903,-0.023566488176584244,-0.013539980165660381,0.004137507639825344,-0.017056073993444443,0.0023847040720283985,0.02289656735956669,0.0034557890612632036,-0.028409311547875404,0.02758469432592392,0.0016099046915769577,-0.002306699752807617,-0.039466261863708496,0.03027879260480404,0.02119620516896248,0.011433207429945469,-0.02363203652203083,0.03604193776845932,0.004987034015357494,-0.04747907817363739,-0.014603855088353157,-0.016497589647769928,0.014355011284351349,0.05703362450003624,0.010118932463228703,-0.04021091014146805,-0.0045806244015693665,-0.05003814399242401,0.006899450905621052,0.022499335929751396,0.01190909929573536,0.010016019456088543,-0.03534448519349098,0.028589574620127678,0.03783538192510605,0.005907353945076466,-0.04285388067364693,-0.04028432443737984,-0.0038910398725420237,-0.00020369619596749544,0.007331096567213535,-0.018597152084112167,0.0035898382775485516,0.03983334079384804,-0.003755310783162713,0.013595697470009327,-0.012706185691058636,0.013471828773617744,-0.0013136191992089152,0.008393250405788422,0.022675009444355965,0.006229858845472336,-0.011856659315526485,0.017955418676137924,0.01868695579469204,-0.014410482719540596,-0.017014123499393463,-0.0059879799373447895,0.004176182206720114,-0.024671003222465515,-0.04297449067234993,-0.019276905804872513,-0.013403636403381824,-0.0008809901773929596,-0.020199846476316452,-0.03442154452204704,-0.03917259722948074,0.020393872633576393,0.011751779355108738,0.0040824455209076405,-0.019169403240084648,-0.043226201087236404,-0.03807136043906212,0.04662955552339554,-0.0128136882558465,-0.006519589573144913,0.005574360489845276,0.010124832391738892,-0.052041348069906235,-0.030315499752759933,-0.026461169123649597,0.022615769878029823,0.024282291531562805,0.003120173467323184,-0.009241219609975815,-0.02474769577383995,0.045591242611408234,0.02031521499156952,-0.033834218978881836,-0.026618489995598793,0.02203524298965931,-0.008923958986997604,-0.007477928418666124,-0.013366928324103355,0.021377120167016983,-0.08929464966058731,0.008656514808535576,-0.003642851719632745,0.002789802150800824,-0.02734740450978279,0.04132263362407684,-0.004294827114790678,0.00883087795227766,-0.03726902976632118,0.029261460527777672,-0.049870338290929794,-0.009218933060765266,0.0471801720559597,0.009546683169901371,-0.019620385020971298,0.04765082150697708,0.002548578893765807,-0.002953676972538233,-0.02855876460671425,0.02596692368388176,-0.038994304835796356,-0.06871723383665085,-0.018238594755530357,-0.007860739715397358,0.018964888527989388,0.03892089053988457,-0.01214901264756918,0.004370864946395159,0.04793005809187889,0.05142255872488022,0.024846019223332405,0.02215847745537758,-0.0140538914129138,-0.023944053798913956,0.02282184176146984,-0.026219945400953293,0.004876910243183374,-0.05388723313808441,-0.02723727934062481,-0.03666597232222557,-0.011174940504133701,-0.021733712404966354,0.04061469808220863,-0.006474687717854977,-0.016256365925073624,-0.006024032831192017,0.018437866121530533,0.013807423412799835,-0.03678134083747864,-0.02577158436179161,-0.023660877719521523,-0.013424612581729889,-0.04839153587818146,0.034778136759996414,0.0049154204316437244,0.054117970168590546,-0.03756793960928917,-0.017134733498096466,-0.02073473297059536,0.018007859587669373,0.07402939349412918,0.015136774629354477,-0.012228982523083687,0.02111230231821537,0.014819514006376266,-0.01469890121370554,-0.03376735746860504,-0.01403291430324316,-0.008656186982989311,0.020168382674455643,0.007518569473177195,0.029872383922338486,0.014431457966566086,0.03882649540901184,0.01545665878802538,-0.011178873479366302,0.01604660600423813,-0.043438587337732315,-0.018885571509599686,0.02377624809741974,-0.029209019616246223,-0.02593414857983589,-0.005608446896076202,0.040368225425481796,-0.030918559059500694,0.009569625370204449,0.01270749606192112,-0.010349011979997158,-0.0073573170229792595,-0.0006083027110435069,-0.07541905343532562,-0.024043690413236618,-0.007519880775362253,0.011159208603203297,0.04112336412072182,0.017800064757466316,-0.018321188166737556,-0.01939227245748043,-0.018506037071347237,-0.0037964843213558197,-0.0764678493142128,0.004558337852358818,-0.038781922310590744,0.015813248232007027,0.01777712255716324,0.0291549414396286,0.02548447623848915,-0.015039761550724506,0.0052492329850792885,0.05060187354683876,-0.0030520018190145493,0.04694419354200363,-0.036734145134687424,-0.034101661294698715,-0.07258205860853195,0.055827345699071884,-0.03607602417469025,-0.014424903318285942,-0.025008583441376686,-0.026954103261232376,-0.013361684046685696,0.014249557629227638,-0.029156578704714775,-0.020640341565012932,0.0019979598000645638,-0.04675540700554848,-0.0424133837223053,-0.038679663091897964,-0.0010278219124302268,0.0020294238347560167,0.09059515595436096,-0.032533708959817886,0.02141907438635826,-0.03484106436371803,0.023073552176356316,0.01849292777478695,-0.00996226817369461,0.0027163864579051733,-0.06181614473462105,-0.010414563119411469,0.02131747081875801,-0.02085534669458866,0.039424311369657516,0.0108026172965765,-0.018395913764834404,-0.05210952088236809,-0.0017410044092684984,0.022918853908777237,-0.010934209451079369,0.040389206260442734,0.02099168859422207,0.011398466303944588,0.05556530877947807,0.00274260644800961,-0.010102545842528343,0.042221978306770325,-0.018192710354924202,0.020178871229290962,0.008219952695071697,0.0074884165078401566,-0.042549725621938705,-0.016631312668323517,0.00419519143179059,0.05896341800689697,-0.010484372265636921,0.028988773003220558,0.011241146363317966,-0.020640341565012932,-0.00529118487611413,-0.011973092332482338,-0.015815870836377144,0.004314491990953684,-0.0062442803755402565,-0.007599851582199335,0.06419691443443298,-0.0035868885461241007,0.017522789537906647,-0.03515045717358589,-0.04583246633410454,-0.001979605760425329,-0.029848787933588028,-0.008096719160676003,-0.033808980137109756,0.04702809453010559,-0.04399706795811653,0.028448641300201416,0.05605168640613556,0.057641930878162384,-0.001982227899134159,0.008091475814580917,-0.0012742894468829036,-0.0019861608743667603,-0.01728418841958046,-0.01872890815138817,-0.00902031734585762,0.06892699003219604,0.042140696197748184,0.008990819565951824,0.006190529093146324,-0.03914113715291023,0.025456946343183517,-0.01874726079404354,-0.006405532825738192,-0.010671518743038177,-0.05558628588914871,-0.007361249998211861,0.0011746535310521722,0.026922641322016716,-0.06130550801753998,0.03509277477860451,-0.017197662964463234,-0.014085355214774609,-0.03456837683916092,-0.04314754530787468,0.011363725177943707,-0.010009463876485825,-0.014050613157451153,0.0038058252539485693,0.06171126291155815,0.03412788361310959,0.04056749865412712,-0.09099370241165161,-0.023115504533052444,-0.009141584858298302,0.051516950130462646,0.009491415694355965,-0.01063284371048212,0.0013477052561938763,0.010089435614645481,0.00013634371862281114,-0.014737576246261597,0.029660003259778023,0.02164718694984913,0.026681415736675262,-0.026031162589788437,-0.01968069188296795,-0.03254944086074829,0.01097042579203844,-0.02546481229364872,-0.003817624179646373,0.02430589124560356,-0.048847757279872894,-0.02071375772356987,0.03515045717358589,-0.02070326916873455,-0.019255926832556725,-0.0228533037006855,0.008736485615372658,0.030866120010614395,0.05705460533499718,-0.004323669243603945,0.0028186440467834473,-0.05178176984190941,0.0059938798658549786,-0.024792270734906197,-0.046776384115219116,0.042754240334033966,-0.06435423344373703,-0.023209895938634872,-0.00654318742454052,-0.0012847773032262921,-0.020556436851620674,-0.0053960648365318775,0.030509529635310173,0.031102100387215614,-0.025517253205180168,-0.023207275196909904,0.014908661134541035,-0.0027570272795856,-0.009477855637669563,0.09688793867826462,0.02443174459040165,0.021458402276039124,0.05002765730023384,0.03929845616221428,0.033691320568323135,0.03597376495599747,0.010938961058855057,-0.001363437157124281,0.009372646920382977,-0.021468890830874443,-0.015834225341677666,0.07748518884181976,-0.031859856098890305,-0.03562504053115845,0.048171285539865494,0.0198537427932024,0.012522646225988865,0.030567213892936707,0.00784238614141941,0.07963521778583527,0.008327455259859562,-0.042109232395887375,0.0007834028219804168,-0.03278542309999466,-0.007509392220526934,-0.05796181410551071,-0.028343763202428818,-0.0037950093392282724,-0.007865983992815018,-0.009646317921578884,0.010333281010389328,0.0239338930696249,0.024846019223332405,-0.019211353734135628,-0.019958622753620148,0.004529495723545551,0.018804945051670074,0.0018249083077535033,-0.026117688044905663,-0.002089729532599449,0.04763639718294144,-0.029439754784107208,-0.04713297635316849,0.02548578754067421,-0.019236262887716293,0.00318310153670609,0.056802891194820404,-0.012131969444453716,0.0020448279101401567,-0.022420674562454224,0.034358616918325424,0.052796486765146255,-0.02939780242741108,0.025745363906025887,-0.02001630701124668,0.0493144765496254,0.08667264878749847,-0.021323371678590775,-0.005616312380880117,0.03087136521935463,0.014059134759008884,-0.014086665585637093,-0.05753704905509949,0.02016313746571541,-0.007315365131944418,-0.02947908453643322,-0.009842967614531517,0.03372671455144882,-0.03972059488296509,0.002142169512808323,0.01589059829711914,-0.016717836260795593,-0.057264361530542374,0.007677200250327587,-0.03972846269607544,-0.021782875061035156,-0.009832479991018772,0.03205126151442528,0.05147499963641167,-0.020105455070734024,-0.020330945029854774,-0.015187248587608337,0.016366491094231606,-0.04014797881245613,-0.007907935418188572,-0.045496851205825806,-0.009176980704069138,-0.036047182977199554,0.0475105457007885,0.02672336809337139,-0.009449668228626251,0.025664083659648895,0.024693945422768593,-0.04692321643233299,0.012061175890266895,0.016345513984560966,-0.02932438626885414,0.020347004756331444,0.0038700641598552465,-0.0014892929466441274,-0.016282586380839348,0.024046311154961586,-0.017399556934833527,0.01991404965519905,0.009525706060230732,-0.008621118031442165,0.007413689512759447,-0.011951051652431488,0.01746772788465023,-0.007367804646492004,0.03375555947422981,-0.018487684428691864,0.04178410768508911,0.06319793313741684,0.008290747180581093,0.0011589216301217675,0.01564544253051281,-0.03591083735227585,-0.006722793914377689,0.016796497628092766,-0.003707500407472253,-0.06803027540445328,0.03598949685692787,0.04572758451104164,-0.05787266418337822,-0.015459279529750347,0.0302053764462471,-0.0235297791659832,-0.008060011081397533,-0.006116457749158144,-0.00913240760564804,-0.013728763908147812,-0.02831229753792286,0.030918559059500694,0.04087165370583534,0.012249958701431751,0.026113100349903107,0.0165985357016325,-0.023125993087887764,-0.045706607401371,-0.014275449328124523,0.015448791906237602,0.0564567893743515,-0.04190078377723694,-0.0036904574371874332,0.048643242567777634,-0.000416897120885551,-0.01401193905621767,0.04354871064424515,-0.04616807773709297,0.013161757029592991,0.020881563425064087,0.002587908646091819,-0.05739021673798561,0.018967509269714355,-0.030990665778517723,0.033897146582603455,0.02948957309126854,-0.0023021113593131304,0.04410325735807419,-0.020975956693291664,0.0048287310637533665,0.02271171845495701,-0.005394098348915577,-0.028422420844435692,0.033939097076654434,0.010571882128715515,-0.0014919148525223136,-0.021835969761013985,-0.011504821479320526,-0.03254944086074829,0.019738376140594482,0.028595473617315292,0.019539102911949158,0.003655060427263379,-0.017986882477998734,-0.05618409812450409,0.008521482348442078,0.05944586172699928,-0.01036212220788002,-6.292787293205038e-05,-0.017116380855441093,-0.02072850614786148,-0.018558477982878685,0.03421702980995178,-0.021290596574544907,0.03872161731123924,0.005788708571344614,0.043766334652900696,-0.04627295956015587,-0.052859410643577576,0.009607643820345402,-0.01902388222515583,-0.012130658142268658,-0.03249699994921684,-0.030897583812475204,0.037409305572509766,-0.01961776427924633,0.01624849997460842,0.0006286231800913811,-0.030312879011034966,-0.027230724692344666,-0.002671812428161502,-0.05567018687725067,0.011589216068387032,0.02161572314798832,-0.014082732610404491,0.0001992715842789039,0.0013162413379177451,0.016432039439678192,-0.002013691933825612,-0.009610839188098907,0.004342022817581892,-0.04759444668889046,0.07269217818975449,-0.008820390328764915,-0.0246572382748127,-0.0062455907464027405,-0.04217216372489929,-0.021489867940545082,-0.036857377737760544,0.0242665596306324,0.031736623495817184,0.024908948689699173,-0.028758037835359573,0.0016885645454749465,-0.006654622498899698,-0.029922204092144966,0.00200320384465158,-0.010881276801228523,0.010975669138133526,0.04826567694544792,-0.009806259535253048,0.006383245810866356,-0.03458935394883156,-0.007970760576426983,0.05345722660422325,-0.011670497246086597,-0.045654166489839554,0.0007367804646492004,0.0158997755497694,0.01523641124367714,0.04324193671345711,-0.020424026995897293,0.008563105948269367,0.006623158231377602,0.016122644767165184,-0.015852579846978188,-0.04278644546866417,0.02958134189248085,0.025192122906446457,-0.01339314877986908,0.052460867911577225,-0.009114053100347519,-0.031175514683127403,-0.027405086904764175,0.009217621758580208,0.04045213386416435,0.053782351315021515,-0.01961776427924633,-0.018600430339574814,0.036445725709199905,0.008539835922420025,-0.014502252452075481,-0.015637576580047607,-0.01631929539144039,0.07098263502120972,-0.04982314258813858,-0.03874259442090988,-0.01941324770450592,-0.04384499415755272,-0.006817185785621405,0.03096182271838188,-0.07333194464445114,-0.010729201138019562,-0.040840186178684235,-0.02916182391345501,-0.007546100299805403,0.008948211558163166,0.011751779355108738,-0.016109535470604897,-0.02464674971997738,0.021201448515057564,0.007509392220526934,0.028600718826055527,-0.013037867844104767,-0.010508953593671322,0.03723232448101044,0.01461352314800024,-0.0037048785015940666,-0.03544936701655388,-0.040263351052999496,0.015246898867189884,-0.029777992516756058,0.02209554985165596,0.01814420148730278,-0.012942166067659855,-0.10053776204586029,-0.00669657438993454,0.019329342991113663,0.003042824799194932,0.03241309896111488,-0.021851148456335068,0.008883317932486534,-0.010205457918345928,0.0047746519558131695,0.04672394320368767,0.02845388650894165,0.059320006519556046,-0.04585343971848488,-0.054912105202674866,-0.048559341579675674,-0.025276027619838715,-0.006633646320551634,-0.006917231250554323,0.003765184199437499,-0.039909377694129944,0.025297004729509354,-0.013707787729799747,-0.02393881231546402,0.015969913452863693,0.01643335074186325,-0.007658846210688353,0.05040522292256355,0.054589927196502686,-0.006874870043247938,0.013235828839242458,-0.019387029111385345,-0.046000272035598755,-0.0013896571472287178,0.018998973071575165,-0.062466397881507874,-0.0373096726834774,0.04956618696451187,-0.012573243118822575,0.03097362257540226,0.01967364363372326,-0.019554508849978447,0.012811065651476383,-0.0009085211204364896,0.017892491072416306,0.031820524483919144,-0.0352868027985096,0.04025286063551903,-0.039190951734781265,-0.013183388859033585,-0.04757346957921982,-0.04001688212156296,-0.03150457516312599,0.003000217257067561,-0.039969686418771744,-0.02162621170282364,-0.03209321200847626,-0.020839612931013107,-0.04539196938276291,0.028632180765271187,0.03468898683786392,-0.019693801179528236,-0.03442154452204704,-0.028595473617315292,0.005422284360975027,0.009391984902322292,0.023388192057609558,-0.004905751906335354,0.024172168225049973,0.021403340622782707,-0.02468870021402836,-0.01710917055606842,-0.05622080713510513,0.027305450290441513,-0.009842967614531517,0.007644425146281719,0.04828665405511856,0.04843348637223244,-0.08251088857650757,0.005028985440731049,-0.03828112408518791,0.021931346505880356,0.030970999971032143,-0.008406114764511585,-0.006978438701480627,0.02790064364671707,0.06439618766307831,-0.018107494339346886,-0.019748862832784653,0.06363581120967865,-0.032659564167261124,-0.002173633547499776,-0.0014269795501604676,-0.013553090393543243,-0.009066857397556305,0.018026214092969894,0.050494372844696045,0.01835855096578598,0.0510135255753994,-0.05104498937726021,-0.018057676032185555,-0.0329112745821476,-0.04014797881245613,-0.014761174097657204,-0.010309354402124882,0.009365764446556568,-0.04440609738230705,0.06741148233413696,0.0106636518612504,0.02529175952076912,-0.07226216793060303,0.04453195631504059,0.0057461014948785305,-0.01643466204404831,0.038669176399707794,-0.057641930878162384,0.02350880391895771,0.00029366338276304305,-0.061202600598335266,0.021988047286868095,-0.01815469190478325,0.003480697749182582,0.03896284103393555,0.06517492234706879,0.006237315014004707,-0.03489350527524948,-0.015638886019587517,-0.08685619384050369,0.03623596578836441,-0.03354055434465408,0.012268313206732273,-0.011956295929849148,0.025276027619838715,0.0162602998316288,-0.027856070548295975,-0.07051067799329758,0.024805380031466484,0.008395626209676266,-0.03806087374687195,0.039660945534706116,0.02600756473839283,-0.011479092761874199,-0.009402472525835037,-0.03304237872362137,0.0027163864579051733,0.02594725787639618,-0.012197518721222878,0.023414410650730133,-0.02307879738509655,0.018437866121530533,-0.048066407442092896,0.006001745816320181,-0.060620516538619995,0.015499921515583992,-0.0037179882638156414,0.026706324890255928,0.009405095130205154,0.00033037131652235985,0.018731528893113136,0.0060666399076581,0.05227208510041237,-0.027528977021574974,0.01709802635014057,-0.03339372202754021,0.0524870902299881,-0.07626333832740784,-0.03815002366900444,0.11100476235151291,0.0026836113538593054,-0.00839038286358118,0.013482295908033848,-0.09837723523378372,0.030598675832152367,0.0066493782214820385,0.052256353199481964,0.007624760270118713,-0.09216835349798203,-0.007082007359713316,-0.02199329249560833,1.8845586964744143e-05,-0.004439036827534437,0.003930369857698679,0.03334128484129906,0.05617361515760422,0.01026904210448265,0.02738935686647892,-0.009989799000322819,-0.015443548560142517,0.06814039498567581,-0.0012113614939153194,-0.010287395678460598,-0.001337217167019844,-0.038451552391052246,-0.0035947547294199467,0.0021814994979649782,-0.0277092382311821,0.024610042572021484,0.02854827791452408,0.001964037772268057,0.03881125524640083,0.028480105102062225,-0.001725272391922772,0.034327153116464615,-0.035810548812150955,0.035659126937389374,-0.05171622335910797,-0.026235679164528847,0.036314625293016434,-0.011660009622573853,0.028416194021701813,-0.030299769714474678,-0.040376096963882446,-0.024311132729053497,-0.023677922785282135,0.03333079442381859,0.005424906965345144,-0.0033449274487793446,0.043068885803222656,0.021468890830874443,0.0012375814840197563,-9.635830065235496e-05,-0.01166263222694397,-0.002989073982462287,0.02417478896677494,0.05321599915623665,0.025349443778395653,-0.016295695677399635,0.020598391070961952,-0.0008469042368233204,-0.026912152767181396,-0.010016019456088543,-0.010794424451887608,-0.06554986536502838,-0.006258700974285603,-0.005936195608228445,0.030946090817451477,-0.011285063810646534,0.029465975239872932,0.036089133471250534,0.05625751614570618,0.06376690417528152,0.01491456013172865,-0.05998075008392334,-0.004344644956290722,-0.013933279551565647,0.0022129632998257875,-0.009030149318277836,-0.009936047717928886,-0.03457886353135109,-0.012774357572197914,-0.009222702123224735,0.04680260270833969,0.023634659126400948,0.004127019550651312,0.04530806839466095,0.005411796737462282,-0.035925257951021194,-0.005429495591670275,-0.04874812439084053,0.0255067627876997,-0.005915219429880381,0.04750791937112808,0.04697565361857414,-0.03646145761013031,-0.005611068569123745,0.01118149608373642,0.016408441588282585,-0.0050375075079500675,-0.0037527401000261307,-0.02074522152543068,-0.030887097120285034,-0.018023591488599777,-0.0109455157071352,0.01726321130990982,-0.03746305778622627,0.045926857739686966,-0.019313612952828407,-0.0344005711376667,-0.0237028319388628,0.04548636078834534,-0.06515132635831833,0.032984692603349686,-0.06765532493591309,-0.0424133837223053,0.04333632439374924,0.01710064895451069,0.04417536407709122,0.00046147103421390057,-0.01455043163150549,0.027714483439922333,-0.07005444914102554,0.02733953669667244,-0.022276464849710464,-0.007829275913536549,-0.03332030773162842,0.025784695520997047,-0.020073989406228065,0.04567514732480049,-0.005417040549218655,-0.0023008002899587154,0.10003433376550674,0.039414312690496445,-0.03496691957116127,0.04564892500638962,-0.04054652526974678,-0.056005802005529404,0.045119281858205795,-0.0605313666164875,-0.06212029978632927,-0.012417766265571117,-0.016715215519070625,-0.03261236846446991,-0.009511285461485386,-0.019355563446879387,-0.010076325386762619,-0.01370024960488081,-0.013159135356545448,-0.03492496907711029,0.007517258636653423,0.015784407034516335,-0.0032827372197061777,-0.034982651472091675,0.041946668177843094,-0.0028737059328705072,-0.0031827737111598253,-0.007797812111675739,0.007446137256920338,0.022570127621293068,0.016335025429725647,0.04912569373846054,-0.009664671495556831,0.005013253539800644,-0.03068782389163971,-0.0055068437941372395,-0.04659153148531914,-0.011557752266526222,0.09208445250988007,-0.04530806839466095,-0.005435394588857889,-0.0629068911075592,0.03657158091664314,0.016948573291301727,0.002464675111696124,-0.04313705489039421,-0.00668608583509922,0.026608983054757118,0.07491955906152725,-0.043766334652900696,0.009367731399834156,0.0019088120898231864
cat,-0.019193734973669052,0.006642852444201708,0.0069279479794204235,0.0033997271675616503,-0.021768959239125252,0.052810877561569214,0.02171274460852146,-0.037193551659584045,0.02019491232931614,0.05619454383850098,0.008287838660180569,-0.05634445324540138,-0.04112866520881653,0.007281305268406868,-0.016369551420211792,0.010434752330183983,0.0020130667835474014,0.0006839608540758491,0.013631031848490238,-0.029976489022374153,0.014985568821430206,0.05533791705965996,-0.0056108878925442696,-0.025484567508101463,-0.0548078827559948,0.025998542085289955,0.02147449553012848,0.013920141384005547,-0.016321366652846336,0.03649218752980232,0.0007055437890812755,-0.0810580626130104,-0.004097072407603264,-0.011821412481367588,0.005996368825435638,0.023043187335133553,-0.010863064788281918,-0.020067088305950165,-0.009165878407657146,-0.022475676611065865,-0.00467663211748004,0.020095868036150932,0.013146502897143364,0.03191192448139191,-0.03398656100034714,0.028455981984734535,0.018671728670597076,0.02894854173064232,-0.051718682050704956,-0.017183344811201096,-0.0027505666948854923,0.016682755202054977,-0.016404353082180023,-0.016055678948760033,0.012451165355741978,0.02818293496966362,0.009547009132802486,-0.003585775149986148,-0.014092804864048958,0.01719672977924347,-0.0059936922043561935,-0.013149180449545383,0.014185160398483276,0.0308705922216177,0.0005216706776991487,-0.025248996913433075,0.048471543937921524,-0.022802263498306274,-0.03329591080546379,-0.009157847613096237,0.014923999086022377,0.004890788346529007,-0.005377993453294039,-0.027893822640180588,-0.03334944695234299,0.038162603974342346,-0.03833393007516861,-0.022272227331995964,-0.014155713841319084,0.03278728947043419,0.020797228440642357,-0.0008325315429829061,0.014179806225001812,-0.030811700969934464,-0.020845413208007812,0.01099691167473793,0.012807869352400303,-0.0033515419345349073,-0.0015044461470097303,0.012635582126677036,-0.03196948021650314,-0.011682212352752686,-0.011541672050952911,0.0200610663741827,-0.0023711088579148054,0.024959886446595192,0.005954206921160221,-0.06673102080821991,0.050540823489427567,0.027690373361110687,-0.020451901480555534,0.012129262089729309,0.02844928950071335,-0.03019600175321102,0.022711247205734253,-0.013728740625083447,0.01601351797580719,-0.06252820789813995,-0.014691104181110859,0.03290306776762009,-0.02722993865609169,-0.038590915501117706,0.018984932452440262,-0.01462685689330101,0.010570942424237728,-0.03659926727414131,0.013971003703773022,-0.054074399173259735,-0.017314516007900238,0.036363694816827774,0.023235930129885674,-0.0009985024807974696,0.038167960941791534,-0.010954081080853939,-0.0001873865257948637,-0.019027763977646828,0.04345225915312767,-0.025270411744713783,-0.0527680478990078,-0.010975496843457222,0.02690870501101017,0.04285262152552605,0.012894200161099434,0.0007760829757899046,0.020633934065699577,0.026298360899090767,0.045378994196653366,0.0057146199978888035,0.005883937235921621,-0.02499736286699772,-0.03413981571793556,0.022133026272058487,-0.02118270844221115,0.03213411197066307,-0.04582939296960831,-0.02101941406726837,-0.008570256642997265,-0.008587656542658806,-0.02261487767100334,0.01783919706940651,-0.025215785950422287,-0.02766895852982998,-0.009171231649816036,0.006976132746785879,0.018856437876820564,-0.020558979362249374,-0.02242213673889637,-0.012260432355105877,-0.014112883247435093,-0.04769254848361015,0.028890317305922508,0.0055038100108504295,0.05361396074295044,-0.019166965037584305,-0.012442465871572495,-0.02103012427687645,0.018267422914505005,0.08705443143844604,0.004837583750486374,0.00021950993686914444,0.006119508761912584,-0.004056248813867569,-0.010247365571558475,-0.040839552879333496,-0.007620608434081078,-0.008515379391610622,0.02894318848848343,0.019734477624297142,-0.004096068441867828,0.03096161037683487,0.015237201936542988,-0.023086020722985268,0.002869021613150835,0.018856437876820564,-0.040191736072301865,-0.011050451546907425,0.008684027008712292,-0.022751400247216225,-0.021281754598021507,-0.020058389753103256,0.035271499305963516,-0.02006642147898674,-0.0005160240107215941,0.007629308849573135,-0.04685734212398529,-0.004632462747395039,0.03084917739033699,-0.048206526786088943,-0.03131229057908058,-0.017239561304450035,-0.003640652634203434,0.04309622570872307,0.03386342152953148,-0.010116864927113056,-0.00030517237610183656,-0.02626623585820198,-0.009488451294600964,-0.05457766726613045,0.013167919591069221,-0.0612693689763546,-0.0049550351686775684,0.022390013560652733,0.016254443675279617,0.04760638624429703,-0.008941014297306538,0.0016985251568257809,0.06373283267021179,-0.017173975706100464,0.04767012968659401,-0.05283229053020477,-0.044616229832172394,-0.02871832437813282,0.05639799311757088,-0.033253077417612076,-0.010011794045567513,-0.03030843287706375,-0.00209605204872787,0.004754263907670975,0.018642282113432884,-0.030822407454252243,-0.03075280599296093,0.021190740168094635,-0.02809727191925049,0.0006531759281642735,-0.04687875881791115,-0.011085251346230507,-0.013091584667563438,0.09313645958900452,-0.0827927216887474,0.024270569905638695,-0.04315244033932686,0.016061702743172646,0.012260432355105877,-0.001176519668661058,-0.029497316107153893,-0.041696179658174515,0.004390198737382889,0.004826541990041733,-0.03091476298868656,0.03792703524231911,0.01868511363863945,-0.012271140702068806,-0.01703878864645958,-0.029127897694706917,0.0022165148984640837,0.053651440888643265,0.05602322146296501,-0.013368690386414528,0.026780880987644196,0.039040643721818924,0.03253565728664398,-0.028996726498007774,0.04280979186296463,-0.019391829147934914,0.031770046800374985,-0.016725586727261543,0.0013639061944559216,-0.05895180255174637,-0.02858046069741249,0.01964881643652916,0.04230116680264473,-0.017368054017424583,0.0022238765377551317,0.030367325991392136,-0.024914376437664032,-0.049577124416828156,-0.007053764071315527,-0.017424270510673523,-0.013351290486752987,-0.023974768817424774,-0.003252494614571333,0.07649653404951096,0.008587656542658806,0.013545368798077106,-0.015124770812690258,-0.06443151831626892,0.002267376985400915,-0.004785048775374889,-0.026737380772829056,-0.041089847683906555,0.0377771258354187,-0.027626128867268562,-0.0005046051810495555,0.043307702988386154,0.06649544835090637,-0.02187603898346424,-0.003908347804099321,-0.010434752330183983,0.012790468521416187,-0.011109343729913235,0.008785751648247242,0.013865265063941479,0.06880298256874084,0.030388740822672844,-0.011599225923418999,-0.00924083311110735,-0.015986748039722443,0.03767004609107971,-0.016847386956214905,0.017464425414800644,-0.030929485335946083,-0.046172041445970535,0.005118329077959061,0.0200610663741827,-0.022250812500715256,-0.03163620084524155,0.013283027336001396,-0.0077317021787166595,-0.013293735682964325,-0.03873547166585922,-0.035817597061395645,-0.0020826675463467836,-0.0025350721552968025,0.0022914696019142866,0.0339544378221035,0.0712711289525032,0.003761115251109004,0.02326805144548416,-0.06861559301614761,-0.044063273817300797,-0.014289560727775097,0.05645153298974037,-0.011733743362128735,-0.004960389342159033,0.014059343375265598,-0.022273564711213112,-0.008405624888837337,0.004970093257725239,0.03717748820781708,0.028506845235824585,0.07124970853328705,-0.026341190561652184,0.013469075784087181,-0.039463602006435394,0.04156768321990967,-0.02851487509906292,-0.03234827145934105,-0.013047455810010433,-0.0625067949295044,-0.010041575878858566,0.04492993652820587,-0.000521336100064218,-0.012378218583762646,-0.023359069600701332,0.030661791563034058,0.03748801350593567,0.05541287362575531,0.019263334572315216,-0.03073139116168022,-0.046930957585573196,-0.006895824335515499,-0.029383545741438866,-0.02446732670068741,0.0569976307451725,-0.051847174763679504,-0.029858704656362534,-0.025686174631118774,0.013593554496765137,-0.008835944347083569,0.004497276619076729,0.023530393838882446,0.028049755841493607,-0.03664209693670273,-0.03606922924518585,0.004526723176240921,0.034256935119628906,-0.005924425553530455,0.08527693152427673,0.044919226318597794,0.03856949880719185,0.020965876057744026,0.04183538258075714,0.0061757247895002365,0.02809727191925049,0.0011537657119333744,0.01573779061436653,-0.008303900249302387,-0.02411396987736225,-0.041730981320142746,0.08185043931007385,-0.040288105607032776,-0.02139151096343994,0.0525110587477684,0.01362032350152731,-0.003546959487721324,0.017469778656959534,0.02078116685152054,0.048217229545116425,0.030570773407816887,-0.043077487498521805,-5.621595846605487e-05,-0.009888654574751854,-0.01334192045032978,-0.025024132803082466,-0.0027037200052291155,-0.0267909187823534,-0.023257344961166382,-0.02123892493546009,0.013144495896995068,0.05818485841155052,0.01336735114455223,-0.00874827429652214,-0.051086921244859695,0.022902648895978928,0.01010950282216072,0.0009529943345114589,-0.006009753793478012,0.01003321073949337,0.058250442147254944,-0.015603943727910519,-0.02194296196103096,0.014709842391312122,-0.01500430703163147,0.0005514518124982715,0.06878691911697388,-0.006582621019333601,0.009295710362493992,-0.021975085139274597,0.05849672108888626,0.07211704552173615,-0.01750725507736206,0.020758412778377533,-0.043273575603961945,0.05474898964166641,0.06906532496213913,-0.004449091851711273,-0.010734571143984795,0.02209019474685192,0.025886110961437225,-0.001872694119811058,-0.03814119100570679,0.0391048938035965,0.029553532600402832,-0.0062660714611411095,-0.018757056444883347,0.039137016981840134,-0.025800447911024094,-0.0044209836050868034,0.006627794820815325,-0.019199088215827942,-0.01713516004383564,0.004912872798740864,-0.03480035439133644,-0.02658211812376976,-0.0047697401605546474,0.0362994484603405,0.059299807995557785,-0.020896274596452713,-0.039982933551073074,-0.01580806076526642,0.04360484704375267,-0.03023347817361355,-0.0069413320161402225,-0.021541420370340347,0.0010707802139222622,-0.001806941581889987,0.032122064381837845,0.0034586198162287474,-0.021308524534106255,0.010126903653144836,0.028750449419021606,-0.009952901862561703,-0.011725042946636677,0.02186666987836361,-0.022170502692461014,0.001168154296465218,-0.011789290234446526,-0.0214637890458107,-0.02241142839193344,0.018655667081475258,-0.03128284215927124,0.011316807940602303,-0.0103624751791358,0.007105965167284012,-0.013246889226138592,0.005239963531494141,0.028316780924797058,0.02167258970439434,0.01916964165866375,-0.004647186025977135,0.046289823949337006,0.0703529343008995,0.004556169733405113,-0.0054716868326067924,0.015553082339465618,-0.05683701112866402,-0.018968870863318443,0.01922050304710865,-0.022344505414366722,-0.04332376644015312,0.06138782575726509,0.02519010379910469,-0.02733701840043068,3.747730443137698e-05,0.0442018061876297,-0.009323818609118462,-0.008092421106994152,0.0089088911190629,0.0018290262669324875,-0.006056600715965033,-0.028786584734916687,0.039645638316869736,0.013524622656404972,0.0003988656389992684,0.02521687187254429,0.021023429930210114,-0.040850263088941574,-0.03669028356671333,-0.009501165710389614,0.050326667726039886,0.05511020869016647,-0.06782020628452301,0.012201540172100067,0.027026493102312088,-0.03387948498129845,-0.003180216997861862,0.045504141598939896,-0.04191033914685249,0.016738971695303917,0.024729667231440544,0.016682755202054977,-0.06049908325076103,-0.008690719492733479,-0.02604672685265541,0.04678238928318024,0.04707149788737297,0.00817808322608471,0.0075597078539431095,-0.04710362106561661,-0.00483189569786191,0.014857074245810509,-0.005772843956947327,-0.036449357867240906,0.007934480905532837,0.011553717777132988,0.006689698901027441,-0.0029627149924635887,0.03756296634674072,-0.005185252986848354,0.007300043944269419,-0.004809141159057617,0.022978942841291428,0.017274361103773117,-0.0312533974647522,-0.027315601706504822,-0.004667263012379408,0.060477662831544876,0.013625678606331348,0.024610543623566628,-0.017057528719305992,-0.00403148727491498,-0.015826130285859108,0.012426404282450676,0.006680329795926809,0.016527492552995682,-0.006379340309649706,0.024475356563925743,-0.03620307892560959,-0.0401221327483654,-0.010847002267837524,-0.0017694642301648855,0.004823864437639713,-0.009517896920442581,-0.021265694871544838,0.06739490479230881,-0.012613791041076183,0.007988019846379757,0.007656078319996595,-0.013090287335216999,-0.01265026442706585,-0.003686160547658801,-0.07576840370893478,0.027679666876792908,0.03462367504835129,-0.029446454718708992,0.01870652846992016,0.010552539490163326,0.0190679170191288,-0.00013652446796186268,-0.010105487890541553,0.0322197750210762,-0.04471176490187645,0.05489889904856682,-0.02500472404062748,-0.003579082665964961,-0.022143732756376266,-0.01249065063893795,0.004663247615098953,-0.01573243737220764,0.01816043257713318,0.0034880663733929396,0.030643053352832794,-0.03203774243593216,-0.007131396327167749,-0.0020773133728653193,-0.0229414664208889,0.004688678774982691,-0.00966379139572382,0.014214606024324894,0.020136021077632904,0.009321141056716442,0.0043304692953825,-0.02486351691186428,-0.0375736765563488,0.036730434745550156,-0.00194881996139884,-0.04742485284805298,0.022094210609793663,-0.006301541347056627,0.021967055276036263,0.016366874799132347,0.001798910670913756,-0.023878399282693863,0.009856531396508217,0.025072777643799782,-0.024927763268351555,0.002120144898071885,0.050754982978105545,0.03317277133464813,-0.005021959077566862,0.033890191465616226,0.005974953528493643,-0.01136633101850748,-0.0450691357254982,-0.013968328014016151,0.023760611191391945,0.03567839413881302,-0.014439470134675503,-0.04152485355734825,0.03511422872543335,0.009578128345310688,-0.005621595773845911,-0.008585314266383648,0.025580937042832375,0.04792812094092369,-0.06583156436681747,-0.020130667835474014,-0.025800447911024094,-0.025050902739167213,0.00492893485352397,0.04285262152552605,-0.057822130620479584,0.002275408012792468,-0.0005206668865866959,0.005613565444946289,-0.017260976135730743,0.007775202393531799,-0.0012447820045053959,-0.016155395656824112,-0.03366532921791077,0.022020593285560608,0.0024253171868622303,0.03045131452381611,-0.009048092179000378,-0.01599745638668537,-0.0012193508446216583,-0.0056590731255710125,-0.0054716868326067924,-0.08332810550928116,-0.023749904707074165,0.02163243666291237,-0.006324295420199633,0.02157086506485939,0.014637565240263939,-0.006459481548517942,-0.09774081408977509,0.00146161497104913,0.014976199716329575,0.018607482314109802,0.005637657828629017,-0.01446624007076025,-0.015629081055521965,0.014467578381299973,0.010258073918521404,0.05509163811802864,0.021843913942575455,0.05254318192601204,-0.021517328917980194,-0.043189920485019684,-0.03318347781896591,0.012427742592990398,0.020773135125637054,-0.013256259262561798,0.030934840440750122,-0.06728782504796982,0.03269894793629646,-0.019680939614772797,-0.024071138352155685,0.009096276946365833,-0.018310341984033585,-0.005779535509645939,-0.0011417192872613668,0.04248855635523796,-0.016152719035744667,0.006909209303557873,-0.005145099014043808,-0.03318347781896591,-0.012841330841183662,0.006076008081436157,-0.054074399173259735,-0.049095269292593,0.02729151025414467,-0.011889675632119179,0.03467186167836189,0.01253883633762598,-0.027532435953617096,0.03769146278500557,0.017432300373911858,0.0007763155736029148,0.029232298955321312,-0.042124491184949875,0.0674484372138977,-0.032396454364061356,0.012016830034554005,-0.05154735967516899,-0.019604645669460297,-0.03776641562581062,-0.0084377471357584,-0.03703828528523445,-0.009025338105857372,0.01053513865917921,-0.049170225858688354,-0.05458837375044823,0.029740918427705765,0.031882479786872864,-0.012892193160951138,-0.05175080522894859,-0.011861567385494709,-0.0051169488579034805,0.04497276619076729,0.027561882510781288,-0.009997071698307991,0.05636586993932724,0.007974635809659958,-0.020451901480555534,-0.03584972023963928,-0.05960498005151749,0.025115149095654488,0.00030517237610183656,6.558528548339382e-05,0.04505843296647072,0.05951396003365517,-0.05707526206970215,0.03423284366726875,-0.07430143654346466,0.02557826042175293,0.036526989191770554,-0.008453809656202793,-0.031887833029031754,0.005332485307008028,0.07118546962738037,-0.020690400153398514,-0.013411521911621094,0.04051966220140457,-0.00783442985266447,0.005688519682735205,-0.007214381359517574,-0.0074870954267680645,-0.0021623068023473024,0.039543911814689636,0.03182358667254448,0.015665514394640923,0.050990551710128784,-0.04601142182946205,-0.019225187599658966,-0.058250442147254944,-0.03749871999025345,-0.011383731849491596,-0.0345647819340229,-0.0049255890771746635,-0.058657336980104446,0.03280334919691086,0.025127194821834564,0.04067358747124672,-0.0555199533700943,0.024403080344200134,0.019814787432551384,-0.046779707074165344,0.07052157819271088,-0.051108334213495255,0.01264122873544693,-0.03784940391778946,-0.05031596124172211,0.04045407474040985,-0.04480144381523132,-0.005695211701095104,0.04987694323062897,0.07186006009578705,0.009736068546772003,-0.042965054512023926,-0.009433573111891747,-0.07686595618724823,0.0744633898139,0.0018952809041365981,-0.0003668258723337203,-0.011864244937896729,0.057929206639528275,0.012688410468399525,-0.0358925499022007,-0.047135740518569946,0.014237277209758759,-0.003935201093554497,-0.030857207253575325,0.023779351264238358,0.01506052352488041,-0.02071424201130867,-0.0012006121687591076,-0.02051079459488392,-0.00982440821826458,-0.007281305268406868,-0.038269683718681335,0.03445235267281532,0.0010921957436949015,0.012627175077795982,-0.05199173465371132,0.016896910965442657,-0.06931160390377045,0.0076058851554989815,-0.0019354351097717881,0.029328668490052223,0.03158266097307205,-0.019691647961735725,-0.01589037850499153,0.03457147628068924,0.06887257844209671,-0.018112245947122574,-0.027165692299604416,-0.02775462158024311,0.05038020759820938,-0.08094027638435364,-0.011403808370232582,0.08210742473602295,0.008394916541874409,-0.01536569558084011,0.04290080443024635,-0.08472012728452682,0.0515165738761425,0.02208484150469303,0.005016605369746685,0.010852357372641563,-0.07869163900613785,-0.0052682384848594666,-0.0010600724490359426,-0.007712963502854109,-0.012894200161099434,0.007652732077986002,0.006098092999309301,0.01516760140657425,0.028043732047080994,0.016158072277903557,-0.018314355984330177,-0.013169257901608944,0.07906641066074371,-0.01676841638982296,-0.04912739619612694,0.018879862502217293,-0.014660988934338093,-0.010986204259097576,-0.014284207485616207,-0.022604171186685562,0.027069322764873505,0.05416005849838257,0.010590015910565853,0.04870443418622017,0.03766000643372536,-0.005289653781801462,0.03835802152752876,-0.041257161647081375,0.022245457395911217,-0.0503694973886013,-0.028445275500416756,0.056430112570524216,-0.0209283996373415,0.013748817145824432,-0.0252115186303854,-0.02343134768307209,-0.005750089418143034,0.007152811624109745,0.026657072827219963,0.022423140704631805,-0.001718602143228054,0.03997088596224785,0.011435932479798794,0.04377884417772293,-0.004320597741752863,-0.04389127716422081,-0.0002168329810956493,-0.017591578885912895,0.05090489238500595,0.018147047609090805,-0.0163019597530365,0.003935117274522781,0.011493486352264881,-0.0070162867195904255,0.01383447926491499,-0.008039216510951519,-0.09913282841444016,0.02531859651207924,-0.016301289200782776,0.03253565728664398,0.004818510729819536,-0.004548138473182917,0.03649218752980232,0.03544282540678978,0.04961995407938957,0.0072652436792850494,-0.03831787034869194,-0.011243191547691822,-0.0049791280180215836,0.010141626931726933,-0.023618733510375023,-0.028118686750531197,-0.043934110552072525,-0.017003988847136497,-0.01698257401585579,0.04640761390328407,0.037862785160541534,-0.02209354192018509,0.05925697460770607,0.021426310762763023,-0.0412464514374733,0.0005621595773845911,-0.06022067740559578,0.024392371997237206,0.003972594626247883,0.047869227826595306,0.04818510636687279,-0.00779527984559536,-0.0358898751437664,0.01688084937632084,0.028461337089538574,-0.02693949081003666,0.027727851644158363,-0.05270380154252052,-0.007339100353419781,-0.030181946232914925,-0.015025721862912178,0.026726674288511276,-0.0427241288125515,0.07172085344791412,-0.0027251355350017548,-0.039849087595939636,-0.012514743022620678,0.061120133846998215,-0.06125933304429054,0.03962957486510277,-0.04411078989505768,-0.04779962822794914,-0.0008713473798707128,-0.014562610536813736,0.045015595853328705,-0.021190740168094635,-0.03839616850018501,0.03863910213112831,-0.06583156436681747,0.013309797272086143,-0.0018591420957818627,-0.02616986632347107,-0.04397694393992424,0.015745822340250015,-0.04825470596551895,0.046498626470565796,0.018321048468351364,-0.013052809983491898,0.07849220186471939,0.04034164175391197,-0.013855895958840847,0.014399317093193531,-0.05496314540505409,-0.049063146114349365,0.011575133539736271,-0.05384417995810509,-0.049598537385463715,-0.033657632768154144,-0.0026983660645782948,-0.019326744601130486,-0.010687055066227913,0.008255715481936932,-0.008046912960708141,0.0003033319371752441,-0.027508342638611794,-0.01744568534195423,0.014185160398483276,0.019100040197372437,0.007933644577860832,-0.04570223391056061,0.02326805144548416,0.002138883341103792,-0.02511380985379219,-0.024457955732941628,-0.0026715965941548347,0.0009506938513368368,0.02894318848848343,0.02385564334690571,-0.021920209750533104,0.004615062847733498,-0.02501208707690239,-0.020773135125637054,-0.05084315314888954,0.0008914245408959687,0.07270597666501999,-0.003956532571464777,-0.0047515868209302425,-0.038823146373033524,0.03137921169400215,0.013491829857230186,-0.006558528635650873,-0.05564308911561966,-0.01932758279144764,0.03488066419959068,0.04974844679236412,-0.07052157819271088,0.02170872874557972,0.0037905618082731962
banana,0.04733607545495033,-0.029579991474747658,0.0330665297806263,0.012405002489686012,0.022187519818544388,0.03883321210741997,0.04178287833929062,-0.005108536686748266,0.006386302411556244,0.051459282636642456,-0.02480621263384819,-0.0012556590372696519,-0.08174668997526169,-0.03920082002878189,-0.024638202041387558,0.004876100458204746,0.012018450535833836,0.0022586705163121223,0.022932831197977066,0.0007882608333602548,-0.0020388669800013304,0.028635088354349136,-0.045830290764570236,-0.03242480382323265,-0.034289345145225525,0.02783166989684105,0.01478494331240654,0.018202634528279305,0.030838176608085632,0.0005457190563902259,-0.02489590272307396,-0.09919959306716919,-0.008322215639054775,-0.002733648056164384,0.02395605482161045,0.028273802250623703,0.016897078603506088,-0.0038402448408305645,-0.012834503315389156,-0.02516876347362995,-0.009413021616637707,-0.003502960316836834,0.004835676867514849,0.01729120872914791,-0.06677478551864624,0.012511114589869976,0.06645392626523972,-0.0305324736982584,-0.031027663499116898,-0.013333482667803764,-0.05274273082613945,-0.04129526764154434,-0.028367282822728157,0.008013826794922352,0.025562893599271774,0.013521704822778702,0.02827632986009121,0.02073732204735279,0.008559703826904297,-0.016372833400964737,0.0070236059837043285,-0.004120683763176203,0.01746300980448723,0.03193466737866402,-0.022675130516290665,0.028377389535307884,0.05270230770111084,0.020492253825068474,-0.04934209585189819,-0.015320556238293648,0.006203132681548595,0.018273375928401947,-0.016914764419198036,0.0016499472549185157,-0.027760928496718407,0.023284010589122772,0.010891641490161419,-0.01867571845650673,0.009004363790154457,0.014294806867837906,0.021444736048579216,0.039352405816316605,-0.005007477477192879,-0.041479695588350296,-0.02731374278664589,-0.0017047403380274773,-0.013423171825706959,-0.010769108310341835,-0.01085374504327774,0.03005496971309185,0.003961516078561544,-0.00218792911618948,-0.006848015822470188,-0.005487507674843073,0.008756768889725208,-0.03633073717355728,-0.03378405049443245,-0.04792221635580063,0.02745775133371353,0.002527740318328142,-0.0054925610311329365,-0.013238739222288132,0.036229681223630905,0.011844123713672161,0.02915049158036709,-0.008488962426781654,0.020280662924051285,-0.06560755521059036,0.04746744781732559,0.019167117774486542,-0.032338906079530716,-0.03029751032590866,0.05862437188625336,-0.0312853641808033,0.01632104068994522,-0.07103443145751953,0.03660359978675842,-0.017465535551309586,-0.04978170245885849,0.03973643109202385,0.006356615573167801,0.06160561367869377,0.056481920182704926,0.03109966777265072,0.02596207708120346,-0.007806813344359398,0.012915350496768951,0.04167676717042923,-0.08315140753984451,-0.03860456869006157,0.044162817299366,-0.013410539366304874,0.02131114900112152,-0.022495830431580544,0.026234937831759453,-0.00990378949791193,0.03653285652399063,-0.007455633953213692,-0.07369227707386017,-0.0008059461833909154,-0.0012430266942828894,0.005295495502650738,-0.034499041736125946,-0.032338906079530716,0.00635914271697402,-0.004992318339645863,-0.0058715324848890305,-0.06553681194782257,-0.04010023921728134,0.020830171182751656,-0.03196625038981438,-0.03961515799164772,0.010333290323615074,-0.0008590021752752364,0.04178792983293533,-0.052752841264009476,-0.028330335393548012,-0.03231869265437126,0.006365458481013775,-0.008578652516007423,0.00037391859223134816,-0.0072257244028151035,0.05111568048596382,-0.032136786729097366,-0.023999005556106567,-0.02775082178413868,0.023541711270809174,0.05995834991335869,0.060130152851343155,-0.03430955857038498,0.025820594280958176,-0.022627128288149834,0.0024988437071442604,-0.04130537435412407,0.014896107837557793,-0.0006973076378926635,0.007397524546831846,0.006457675248384476,0.059321679174900055,0.02779124677181244,0.05742176994681358,-0.02696508727967739,-0.031247466802597046,0.015886487439274788,-0.030711853876709938,-0.03754344955086708,-0.03445609286427498,-0.004008887335658073,0.0027184891514480114,0.020257292315363884,0.037129104137420654,-0.028741201385855675,-0.03139905631542206,-0.013501493260264397,-0.06429378688335419,-0.03724532201886177,0.008357586339116096,-0.006164603866636753,-0.033383604139089584,-0.02909996174275875,0.008612444624304771,0.007228250615298748,0.02664170041680336,-0.008680343627929688,0.03571933135390282,-0.039958756417036057,0.0045249201357364655,-0.02005011960864067,0.0002122240694006905,-0.0914483591914177,-0.03353140130639076,0.006018068175762892,0.00809988472610712,0.054606009274721146,-0.012990828603506088,0.020191602408885956,0.014661145396530628,0.0009095316636376083,0.0336930975317955,-0.015179073438048363,0.0017394793685525656,0.012003607116639614,0.07249978184700012,-0.048685211688280106,-0.0032364169601351023,0.02847844921052456,0.01116197556257248,0.005450874101370573,-0.0012973458506166935,-0.009436391294002533,-0.024395661428570747,-0.004632295109331608,-0.07636024057865143,0.013380222022533417,-0.030115606263279915,-0.02642442099750042,0.03986527770757675,0.0787755474448204,-0.021459896117448807,0.005800791084766388,-0.028432970866560936,0.038321603089571,0.04027204215526581,0.04196983575820923,-0.03447630628943443,-0.02402174472808838,-0.009206797927618027,0.017660073935985565,-0.012056347914040089,0.007705755066126585,0.016300829127430916,-0.025487098842859268,-0.01899089477956295,-0.014340282417833805,-0.00829063355922699,-0.011992554180324078,0.05352088809013367,-0.007650172337889671,-0.006192394997924566,0.060817353427410126,-0.02280903235077858,-0.011427255347371101,0.055552173405885696,-0.022212784737348557,0.005280810408294201,-0.010217073373496532,-0.005805843975394964,-0.04393543303012848,-0.05221722647547722,-0.003971621859818697,0.04208099842071533,-0.010325711220502853,0.05643139034509659,0.0783890038728714,-0.02245279960334301,0.00957534834742546,-0.004337329417467117,0.018592344596982002,0.008170626126229763,-0.0151285445317626,-0.014386391267180443,0.048831745982170105,-0.050489116460084915,0.020701952278614044,0.008713819086551666,-0.05496855825185776,0.021836338564753532,-0.012738496996462345,-0.009701671078801155,-0.04358678311109543,0.07199449092149734,-0.06126201152801514,-0.01762470230460167,0.047563452273607254,0.07470287382602692,0.010591505095362663,-0.004775041248649359,-0.020676687359809875,0.0014754625735804439,-0.030284879729151726,-0.0293930321931839,-0.005357393994927406,0.013966364786028862,0.02753101848065853,-0.012248359620571136,0.00038402448990382254,-0.0447893850505352,0.00739247165620327,-0.0004850835830438882,0.007950822822749615,0.02050394006073475,-0.07365185022354126,-0.039418093860149384,0.02604292333126068,0.03147990256547928,-0.03699267655611038,0.011533367447555065,0.014633354730904102,-0.01914587989449501,-0.034006379544734955,-0.03569406643509865,-0.010995227843523026,0.01615934632718563,0.02075248211622238,0.026702335104346275,0.03739691525697708,-0.0032111522741615772,0.033511191606521606,-0.09226693958044052,-0.002445629797875881,-0.011350197717547417,0.012854713946580887,-0.018086416646838188,-9.221641084877774e-05,0.04290968179702759,-0.04059669375419617,-0.01446155458688736,-0.0018569605890661478,0.002566900569945574,0.050175830721855164,-0.01400426123291254,-0.002626272849738598,0.021874237805604935,-0.05959959328174591,0.009341648779809475,-0.0035130660980939865,0.013198315165936947,0.04653770476579666,-0.020635947585105896,0.01117713376879692,0.043056223541498184,-0.013713717460632324,-0.013786353170871735,-0.011681166477501392,-0.000765522476285696,0.014335229992866516,0.0294486153870821,0.015042643062770367,-0.014464080333709717,-0.008401641622185707,-0.007714597508311272,-0.04274798929691315,-0.016382940113544464,0.05959959328174591,-0.032480388879776,0.016884446144104004,0.011611687950789928,-0.01497948169708252,-0.014729360118508339,-0.008740346878767014,0.026461055502295494,0.05685078725218773,-0.0540463961660862,-0.004830623976886272,-0.018802041187882423,-0.020247187465429306,0.03386489674448967,0.0564541257917881,-0.0062505039386451244,0.011796120554208755,0.08919474482536316,0.03217215836048126,0.02325369417667389,0.017968304455280304,0.009416179731488228,0.006091335788369179,0.02150537259876728,-0.05342993512749672,0.00014906215074006468,-0.007316677365452051,-0.02598734200000763,-0.03629031404852867,0.03884458169341087,0.014816523529589176,0.0032717876601964235,0.02896353043615818,-0.002789230551570654,0.05270736292004585,-0.02771040052175522,0.005730049684643745,-0.01368087250739336,-0.018089573830366135,0.015661630779504776,-0.0583818294107914,-0.0011621793964877725,0.005860163364559412,0.015310450457036495,-0.03472390025854111,-0.023784255608916283,0.017310157418251038,0.03467589616775513,0.0017270048847422004,0.0028296541422605515,0.028323069214820862,-0.016593901440501213,0.007993773557245731,-0.040492478758096695,-0.001013117260299623,0.05085292458534241,-0.002900395542383194,-0.05681541562080383,0.030497103929519653,-0.0255730003118515,0.0022671972401440144,0.04873068630695343,-0.01201087236404419,0.00863044522702694,-0.007117085158824921,0.09410621970891953,0.08917705714702606,0.009287329390645027,0.024196069687604904,-0.05535510927438736,0.04001939669251442,0.02940819226205349,-0.023587187752127647,-0.0172507856041193,-0.02123188227415085,-0.024340080097317696,-0.0005886690923944116,-0.03796284645795822,0.03465820848941803,0.015083067119121552,-0.06708301603794098,0.012834503315389156,0.02584080584347248,-0.026536850258708,-0.024127855896949768,0.05434957146644592,-0.006917493883520365,0.008165573701262474,0.014345336705446243,-0.03256123512983322,0.022513436153531075,-0.005613831803202629,0.05487507954239845,0.04487023130059242,-0.026322731748223305,-0.010838585905730724,0.015841010957956314,0.03285619989037514,-0.02674023248255253,-0.02527487464249134,-0.038220543414354324,0.0015436774119734764,-0.007036238443106413,0.04272746294736862,0.012614699080586433,-0.039030276238918304,0.012878716923296452,0.0016611586324870586,-0.04480959475040436,0.020100651308894157,-0.00993663351982832,-0.024859270080924034,0.027518387883901596,0.03380047157406807,-0.015987547114491463,-0.00471314275637269,0.017318999394774437,0.013251371681690216,0.021717596799135208,-0.010820268653333187,0.01586880162358284,0.004941788502037525,-0.02487821690738201,0.03572438284754753,0.006750746630132198,0.019527139142155647,0.005808370187878609,0.020125916227698326,0.04383690282702446,0.02167717181146145,0.0023710986133664846,0.01672527752816677,-0.04042363166809082,-0.00531570753082633,0.0011470204917714,0.006307980976998806,-0.019738100469112396,0.02648758329451084,-0.013289269059896469,-0.025052545592188835,0.007496057078242302,0.026179354637861252,-0.026881715282797813,0.011919918470084667,0.00894878152757883,0.03636610880494118,-0.04662866145372391,0.0009929054649546742,0.022334057837724686,0.05222732946276665,0.019817685708403587,0.047012683004140854,0.01170769426971674,-0.03176286816596985,-0.011283245868980885,-0.05124706029891968,0.025183921679854393,0.037006232887506485,-0.07217133790254593,-0.01668485440313816,0.046446751803159714,-0.02855929546058178,-0.03186392784118652,0.05613831803202629,-0.038665201514959335,0.03413775935769081,-0.007357100956141949,-0.01996043138206005,-0.038341812789440155,-0.003691182704642415,-0.029822535812854767,0.04256608337163925,0.061787523329257965,-0.0214396845549345,0.01812494546175003,-0.04143422096967697,-0.011134183965623379,0.024981804192066193,0.02017139084637165,-0.009747148491442204,0.025669006630778313,-0.02261323109269142,0.0014975692611187696,-0.016016915440559387,0.003993728198111057,-0.03661370277404785,0.01119355671107769,0.032626923173666,0.02807421237230301,-0.053126756101846695,-0.010113487020134926,0.005713627673685551,0.011845387518405914,0.020540257915854454,-0.007731019519269466,0.03132452443242073,-0.0009297435753978789,-0.050125300884246826,0.006280821748077869,-0.02612377144396305,0.0069427588023245335,0.03569406643509865,-0.019834740087389946,0.003668444696813822,0.004247007891535759,-0.05396554619073868,0.001556309754960239,-0.035390887409448624,-0.0012603962095454335,0.002566900569945574,-0.011182187125086784,0.01548856683075428,-0.021548321470618248,-0.025392357259988785,-0.02633599564433098,-0.005172645673155785,-0.034473780542612076,-0.0001616945373825729,-0.06431400030851364,-0.0023496237117797136,0.040969353169202805,-0.0020187341142445803,-0.010636468417942524,0.058568790555000305,0.02839002199470997,-0.037331223487854004,0.02114061266183853,0.021434631198644638,-0.012806711718440056,0.06522352993488312,-0.004679035395383835,0.010783003643155098,-0.021712541580200195,0.006015857215970755,0.01711435429751873,0.013751613907516003,-0.020989971235394478,0.013728875666856766,-0.006971181370317936,0.038382235914468765,-0.02508586272597313,-0.017644915729761124,-0.04313201457262039,0.015593416057527065,-0.023926526308059692,0.0002943345461972058,0.028086213394999504,-0.00039160391315817833,0.0015158861642703414,0.008344953879714012,-0.029708843678236008,0.01351159904152155,0.02064131572842598,-0.022707974538207054,-0.00033602144685573876,0.00663200207054615,0.03240964561700821,-0.026598749682307243,-0.010083169676363468,-0.009605665691196918,-0.019277019426226616,0.01079816184937954,0.003431587480008602,-0.029427140951156616,0.03956462815403938,-0.007579430937767029,-0.009977057576179504,0.04299053177237511,0.014405971392989159,-0.0030039811972528696,-0.037412069737911224,0.008322215639054775,0.01355202216655016,0.024360291659832,-0.0020085491705685854,-0.04711374267935753,0.03778599202632904,0.0056997318752110004,-0.030479418113827705,0.006523363757878542,0.017806608229875565,0.06524374336004257,-0.05285390093922615,-0.06002909317612648,0.001289766514673829,0.002850813325494528,-0.004719458986073732,0.0020868699066340923,-0.07169131189584732,-0.021010182797908783,-0.02069690078496933,-0.04423355683684349,-0.06168645992875099,-0.013913309201598167,0.010429296642541885,-0.02513023465871811,-0.007441737689077854,0.017619650810956955,0.008054408244788647,0.011858019977807999,-0.010578990913927555,-0.021712541580200195,0.02191971428692341,-0.02527487464249134,0.0014047211734578013,-0.04503192380070686,-0.02435397356748581,0.018234452232718468,-0.01647515594959259,0.03794768452644348,0.021363889798521996,0.020561888813972473,-0.055698707699775696,-0.019650937989354134,-0.02213698998093605,-0.009552610106766224,0.018129998818039894,-0.006791170220822096,-0.014093714766204357,0.03126262500882149,0.03175528720021248,0.020651422441005707,0.03593660891056061,0.07272211462259293,-0.03509276732802391,-0.029910961166024208,-0.04910966008901596,-0.0460020937025547,-0.0006543575436808169,-0.02779124677181244,0.033763837069272995,-0.059648264199495316,0.032662294805049896,0.014891055412590504,-0.014532295987010002,-0.008430853486061096,-0.014148270711302757,-0.00666484609246254,0.017134565860033035,0.022100357338786125,-0.004893785808235407,0.02495148777961731,-0.01079310942441225,-0.04246502369642258,0.047780733555555344,-0.014042158611118793,-0.03588607907295227,-0.030994819477200508,0.03501949831843376,0.021283041685819626,0.04458726570010185,-0.01228246744722128,-0.029304606840014458,0.031271468847990036,-0.005017583258450031,-0.03397101163864136,-0.0050529539585113525,-0.02427944354712963,0.04897322878241539,-0.048427507281303406,-0.01948419027030468,-0.019398290663957596,-0.029515568166971207,-0.043677736073732376,-0.005497613921761513,-0.03220468759536743,-0.01754385605454445,-0.060261525213718414,-0.050286997109651566,-0.024052061140537262,0.0002955977979581803,0.02321958728134632,-0.027083832770586014,-0.04714406281709671,0.0008994258241727948,0.030519841238856316,0.01885257102549076,0.0003941304166801274,-0.03313726931810379,-0.003173255128785968,0.007943243719637394,0.01551256887614727,-0.04650738835334778,-0.005620148032903671,0.05383417010307312,0.001672527752816677,-0.004144685342907906,0.03587597236037254,0.06601179391145706,-0.039797063916921616,0.0036457062233239412,-0.02022697404026985,-0.007426579017192125,0.0065031517297029495,0.02985285222530365,-0.01444134209305048,0.009822942316532135,0.04143422096967697,-0.02843044511973858,-0.01152073498815298,-0.016939396038651466,-0.017153199762105942,-0.012682914733886719,-0.017119407653808594,-0.014350389130413532,0.03240206465125084,0.049074288457632065,0.02495148777961731,0.0024414649233222008,0.03643937408924103,-0.04949873685836792,-0.05097546428442001,-0.046972259879112244,-0.018291695043444633,-0.005649202037602663,-0.014451448805630207,0.007261095102876425,-0.06969033926725388,0.03571680560708046,0.03171486780047417,0.03438029810786247,-0.04625473916530609,0.04905407875776291,0.02833949215710163,-0.04298042505979538,0.03363246098160744,-0.02713436260819435,0.019671151414513588,-0.0061639719642698765,-0.00869108084589243,0.007592062931507826,-0.017652494832873344,0.004156054463237524,0.02584080584347248,0.04758872091770172,-0.006580209359526634,-0.024511879310011864,-0.019074900075793266,-0.04639117047190666,0.03496643900871277,-0.04421839863061905,-0.008600759319961071,-0.018251270055770874,0.013440857641398907,-0.02277619019150734,-0.026338523253798485,-0.046719614416360855,0.023594766855239868,0.017649967223405838,-0.06502141058444977,0.04674108698964119,-0.008065777830779552,-0.017139621078968048,-0.005838687997311354,-0.028458235785365105,0.025087915360927582,-0.0036488643381744623,-0.04913492128252983,0.023566976189613342,-0.01379456464201212,0.01578795537352562,-0.0384327657520771,0.0015272552845999599,-0.08238335698843002,-0.02542141079902649,0.025214239954948425,0.031853821128606796,0.03275830298662186,0.01671769842505455,0.003828875720500946,0.01691223680973053,0.0907914787530899,0.015270027332007885,0.004974632989615202,-0.020080439746379852,0.029862957075238228,-0.0800994262099266,0.024711472913622856,0.10712262988090515,-0.029322290793061256,0.00536623690277338,0.017313946038484573,-0.054405152797698975,0.029976176097989082,-0.040848080068826675,0.02830664813518524,0.04391017183661461,-0.045991986989974976,-0.001752111711539328,0.018923627212643623,0.036530330777168274,-0.01344970054924488,0.03703562542796135,0.011337565258145332,0.02383478358387947,0.005578461103141308,0.0011116499081254005,-0.0025315298698842525,-0.050327423959970474,0.0338750034570694,0.004500918556004763,-0.029226284474134445,-0.020320454612374306,-0.021904554218053818,0.022349214181303978,0.04191930592060089,0.019178487360477448,0.03579512611031532,0.03880668431520462,0.00508327130228281,0.03310442715883255,0.03576480969786644,-0.04436493664979935,0.02741732820868492,-0.0028726044110953808,0.046557918190956116,0.012655123136937618,-0.007502136752009392,-0.025480784475803375,-0.017862191423773766,0.030583005398511887,-0.03474410995841026,-0.012933035381138325,-0.007286359556019306,0.010611203499138355,0.013339797966182232,0.02577764354646206,-0.015429195016622543,0.019140589982271194,0.02266249805688858,0.03134094551205635,0.012122036889195442,-0.03749291971325874,0.0484982505440712,0.013057463802397251,0.04430430009961128,0.01062383595854044,-0.02203087881207466,0.005447084549814463,-0.003769503440707922,-0.0433012880384922,-0.010771002620458603,-0.011495470069348812,-0.07320719957351685,-0.025346878916025162,0.0025264769792556763,0.05422956496477127,0.004067627713084221,0.0915999487042427,0.04305116459727287,0.045830290764570236,0.04723501205444336,0.03925134241580963,-0.06744177639484406,-0.008752979338169098,0.01472430769354105,-0.017538802698254585,-0.03513318672776222,0.0019870740361511707,-0.026386525481939316,-0.020717110484838486,0.009893683716654778,0.02146494761109352,-0.029478933662176132,-0.012286257930099964,0.032298482954502106,0.034662000834941864,-0.035704173147678375,0.010310868732631207,-0.022627128288149834,0.04938315227627754,-0.010621309280395508,0.04175887629389763,0.01907995529472828,-0.01978910341858864,-0.008739084005355835,0.05072155222296715,0.0253152996301651,-0.027695240452885628,-0.0014020368689671159,-0.05346530303359032,-0.01812494546175003,-0.0548548698425293,-0.02707120031118393,0.05039816349744797,-0.02876141481101513,0.04253576695919037,-0.009177112020552158,-0.017766185104846954,-0.019009213894605637,0.08806288242340088,-0.043283600360155106,0.06326298415660858,-0.0453401580452919,0.011257980950176716,0.03799821436405182,0.001040908508002758,0.037937577813863754,-0.017968304455280304,-0.01733163185417652,0.05368763580918312,-0.05151991918683052,0.007758178748190403,-0.02009054459631443,-0.026725072413682938,-0.022667549550533295,0.047164272516965866,-0.045183513313531876,0.029304606840014458,0.005435715429484844,-0.01514875516295433,0.07857658714056015,0.041536543518304825,0.011196082457900047,0.004925366956740618,-0.067972332239151,-0.00992400199174881,0.038099270313978195,-0.0338396318256855,-0.03084765188395977,0.02908480167388916,-0.033706992864608765,-0.04606273025274277,0.04464956000447273,-0.053157076239585876,-0.011904760263860226,-0.049670539796352386,-0.003147990209981799,-0.04117652028799057,-0.014148270711302757,0.014699043706059456,-0.032702717930078506,0.018362434580922127,-0.026012606918811798,-0.00520075298845768,-0.007167614996433258,-0.007472055498510599,-0.03857298940420151,-0.0031154619064182043,0.027922624722123146,0.029485881328582764,-0.0272253155708313,-0.014916320331394672,0.002329411683604121,-0.01641199365258217,-0.012794079259037971,0.009721883572638035,0.036061666905879974,-0.01155863143503666,0.025446675717830658,-0.0445670522749424,-0.002598481485620141,0.00885277520865202,-0.0031656755600124598,-0.05738134682178497,0.0030106131453067064,0.038898903876543045,0.004201530944555998,-0.011000280268490314,0.03964926302433014,0.006048385985195637
bird,-0.019453132525086403,-0.02957761660218239,0.023521898314356804,0.025703854858875275,0.00561036542057991,0.005309951491653919,0.03681785985827446,-0.06609111279249191,0.005149203818291426,0.06442565470933914,-0.0020762174390256405,-0.06118961423635483,-0.02742728404700756,-0.04106713831424713,-0.008026855066418648,0.007319959346204996,-0.006093927193433046,0.02229388989508152,0.032270804047584534,0.0087805250659585,-0.016562964767217636,0.020942028611898422,-0.005238800775259733,-0.035185348242521286,-0.0623491108417511,0.014820431359112263,0.03418923541903496,0.03978115692734718,-0.029851678758859634,0.017993226647377014,-0.0032689799554646015,-0.08072180300951004,-0.01131296344101429,0.002603589091449976,0.006635463330894709,0.031619906425476074,-0.023126617074012756,-0.02952491119503975,0.01843133009970188,-0.04108821973204613,0.03445209935307503,0.010580374859273434,0.01351863518357277,0.0218827985227108,-0.06530581414699554,0.005744761321693659,0.009580311365425587,-0.007671759929507971,-0.06501594185829163,-0.04751550406217575,-0.006830468773841858,-0.013991656713187695,-0.0014006150886416435,-0.005844899453222752,-0.019357604905962944,0.00243790028616786,0.01446138322353363,0.0070254746824502945,0.010398545302450657,0.017192121595144272,-0.026988521218299866,0.0032044174149632454,0.024960724636912346,0.022567953914403915,-0.00575266731902957,0.023337434977293015,0.022077804431319237,0.0008221860625781119,-0.01865202933549881,0.013286737725138664,0.02031221054494381,-0.012084092944860458,-0.027984630316495895,-0.01999598555266857,-0.0524090901017189,-0.0032676623668521643,-0.013112813234329224,-0.019352994859218597,-0.016433674842119217,0.00562354177236557,0.010540846735239029,0.009244322776794434,-0.005956237204372883,-0.045220229774713516,-0.037630822509527206,0.031179826706647873,-0.0026213768869638443,-0.01664004474878311,0.01203237660229206,0.03414180502295494,-0.017885182052850723,-0.006939830258488655,-0.01615780033171177,0.017757374793291092,0.014416584745049477,-0.020436067134141922,-0.014514745213091373,-0.03303237631917,0.031074415892362595,0.00846207607537508,-0.029730457812547684,0.0032940146047621965,0.01649642549455166,-0.00582645321264863,0.024575985968112946,-0.0038315977435559034,0.008903062902390957,-0.07424972206354141,0.007136153522878885,-0.004964738618582487,-0.029878029599785805,-0.046189989894628525,0.06704241782426834,-0.01552139688283205,-0.013514683581888676,-0.001918434165418148,0.041989460587501526,-0.04448237270116806,-0.030252231284976006,0.05247233808040619,-0.005597189534455538,0.01078723929822445,0.026716435328125954,0.014936380088329315,0.014867864549160004,-0.023221485316753387,0.02036491595208645,-0.022683901712298393,-0.06126340106129646,-0.009343143552541733,-0.023395409807562828,-0.007733028847724199,0.040161944925785065,-0.029324635863304138,-0.02362203784286976,0.023801233619451523,0.030091483145952225,0.008295646868646145,0.019291067495942116,-0.03241310268640518,0.00015811269986443222,0.007054461631923914,-0.023127276450395584,0.016116954386234283,-0.03244999796152115,-0.01669670268893242,-0.006991216447204351,-0.02626779116690159,-0.018351614475250244,0.04167850688099861,-0.006867361720651388,-0.034278836101293564,-0.013452096842229366,0.013094366528093815,0.05928172543644905,-0.032139044255018234,-0.03713540360331535,-0.005510227754712105,-0.006504361517727375,-0.02859731763601303,0.004577362444251776,0.015663698315620422,0.059734977781772614,-0.044355884194374084,0.00011331410496495664,-0.024138538166880608,0.03674539178609848,0.06535325199365616,0.020702224224805832,-0.029293013736605644,0.012664827518165112,0.000627180386800319,-0.030294394120573997,-0.020349103957414627,-0.040379349142313004,0.004516752902418375,0.019916929304599762,-0.029930735006928444,0.028402311727404594,0.033309075981378555,0.01140519604086876,0.01236441358923912,-0.009220605716109276,0.0023301858454942703,-0.02356933243572712,-0.0038263273891061544,0.02747998759150505,-0.0117108803242445,-0.022098885849118233,-0.010725311934947968,0.04218446835875511,-0.022726066410541534,-0.008917556144297123,-0.012396035715937614,-0.019136907532811165,-0.004081943072378635,0.021756308153271675,-0.062156740576028824,-0.03081616573035717,-0.013624044135212898,0.0028275821823626757,0.026844901964068413,-0.001691394136287272,-0.020320117473602295,-0.004163634497672319,-0.025635339319705963,0.004487765487283468,-0.0535198338329792,-0.009447234682738781,-0.026584014296531677,-0.006751412525773048,0.053368307650089264,0.019521649926900864,0.03364374861121178,-0.03940168395638466,0.0001950056612258777,0.06075744330883026,-0.009792446158826351,0.041404448449611664,-0.04244798794388771,-0.041082948446273804,-0.05264626070857048,0.06337420642375946,-0.011744479648768902,-0.03395206853747368,-0.03851361945271492,0.0017207931960001588,-0.02513992041349411,0.028270550072193146,-0.013500189408659935,-0.018298910930752754,0.008580248802900314,-0.06878956407308578,-0.030810896307229996,-0.03033655695617199,0.03482695668935776,-0.017344962805509567,0.09537357836961746,-0.044210948050022125,0.0005902874399907887,-0.010832696221768856,0.03266608342528343,0.017931297421455383,-0.0009552642004564404,-0.008337809704244137,-0.053210195153951645,-0.05226151645183563,0.03018173947930336,-0.031165331602096558,0.02367474138736725,0.018857574090361595,0.0014625424519181252,-0.015343519859015942,-0.01371364202350378,0.02406475320458412,0.02168252319097519,0.03565704822540283,0.009987452998757362,0.02224118635058403,0.04953670874238014,-0.03695620968937874,-0.02240852452814579,0.04550483822822571,-0.030752919614315033,0.004624796565622091,0.02156130224466324,0.040096063166856766,-0.01756368577480316,-0.035987768322229385,0.034679386764764786,0.03698782995343208,-0.02778567373752594,0.03145388513803482,0.02681591361761093,-0.05470699816942215,-0.00797678530216217,0.012230017222464085,0.024560173973441124,0.007548564113676548,-0.03017844446003437,0.0044376966543495655,0.08309349417686462,-0.0004954198375344276,0.02893989533185959,-0.00913611426949501,-0.05120677500963211,0.00832199864089489,-0.01396662276238203,-0.010751663707196712,-0.03501702472567558,0.04829815775156021,-0.032550133764743805,0.023959346115589142,0.0390426367521286,0.07222588360309601,-0.0134376036003232,0.0018235663883388042,-0.022325513884425163,0.008411595597863197,-0.007431297097355127,0.0038157866802066565,-0.06286560744047165,0.05589811131358147,0.06001958250999451,-0.022794580087065697,0.020920945331454277,-0.03966520354151726,0.000852491008117795,-0.024307191371917725,-0.021434811875224113,-0.025250598788261414,-0.035056222230196,-0.020037902519106865,-0.005847534630447626,-0.02016463875770569,-0.022571904584765434,0.02503451146185398,-0.03463376313447952,-0.03932790085673332,-0.0395980067551136,-0.04753921926021576,0.027153221890330315,-0.01955261081457138,0.005232707131654024,0.015242064371705055,0.0712772086262703,0.004632702097296715,0.009098727256059647,-0.07115071266889572,0.0002503450959920883,-0.017151275649666786,0.05894441530108452,0.012269546277821064,-0.0009012424270622432,0.012396035715937614,-0.03440532460808754,-0.052930861711502075,-0.001876270747743547,0.03344610705971718,0.015176184475421906,0.03409700468182564,-0.00343899242579937,-0.017500441521406174,-0.0243678018450737,0.010214081034064293,-0.02005923166871071,0.0231477003544569,-0.004332288168370724,-0.0706183984875679,-0.022778769955039024,0.013608233071863651,-0.011096876114606857,-0.0068923961371183395,-0.016064250841736794,-0.0011384114623069763,0.0044376966543495655,0.05070147663354874,0.013642490841448307,-0.021566571667790413,-0.04429790750145912,0.029082195833325386,-0.0023216214030981064,-0.029177062213420868,0.06267587840557098,-0.05596662685275078,-0.0142347551882267,0.010219351388514042,-0.015908773988485336,-0.009275944903492928,0.0027864070143550634,0.06575380265712738,0.040737736970186234,-0.035675495862960815,-0.004996361676603556,0.009086210280656815,-0.0643518716096878,-0.015584641136229038,0.07565166056156158,0.04289070516824722,0.003420504741370678,0.044408585876226425,0.026120219379663467,0.030173173174262047,0.017012925818562508,-0.000935500196646899,0.0023954075295478106,0.010593551211059093,-0.02137024886906147,-0.026584014296531677,0.06153746321797371,-0.04447710141539574,-0.046869877725839615,0.04549429193139076,0.018791036680340767,0.0335831381380558,0.02284201607108116,0.0009486761991865933,0.05903928354382515,0.01840728335082531,-0.030929479748010635,-0.01140519604086876,-0.009555277414619923,0.014537803828716278,-0.07716954499483109,-0.001011921325698495,-0.014707116410136223,-0.02947220765054226,-0.009547371417284012,0.014061489142477512,0.06141624227166176,0.004010133445262909,0.002940896200016141,-0.03924357146024704,0.003698684275150299,0.0226522795855999,0.005955043248832226,-0.017020832747220993,-0.008786454796791077,0.042774755507707596,0.003931735642254353,-0.019205423071980476,0.034850675612688065,-0.014156357385218143,-0.015790188685059547,0.0295473113656044,-0.0162856075912714,0.014322375878691673,-0.029482750222086906,0.03648845851421356,0.08177589625120163,-0.03053683415055275,0.018356885761022568,0.010161375626921654,0.06164287403225899,0.06976722925901413,-0.03852679580450058,-0.0006166395032778382,-0.0035008788108825684,-0.010880788788199425,-0.017405573278665543,-0.058257944881916046,0.005618271417915821,0.010804368183016777,-0.029949180781841278,-0.01751098223030567,0.03340921178460121,-0.059829846024513245,-0.009146654978394508,0.011737233027815819,-0.02325310744345188,-0.007773874327540398,-0.026199275627732277,-0.024684026837348938,-0.008308163844048977,-0.014002197422087193,0.043438829481601715,0.04559970274567604,-0.010978292673826218,-0.02605697326362133,-0.007630255538970232,0.020238425582647324,0.0052493419498205185,-0.030075011774897575,-0.06484729051589966,0.016575811430811882,0.006687508430331945,0.046938393265008926,-0.0053573851473629475,-0.031580377370119095,0.00903350580483675,-0.0013279820559546351,-0.02620454505085945,-0.047665707767009735,0.024412602186203003,-0.03944384679198265,-0.012788682244718075,-0.017239553853869438,-0.03671903908252716,-0.025701221078634262,0.028943847864866257,-0.02990569919347763,0.001657548127695918,0.0009802987333387136,-0.011515875346958637,-0.0041623166762292385,0.013987703248858452,0.002603589091449976,0.029303554445505142,0.04603978618979454,-0.003989710472524166,0.029809514060616493,0.03652403503656387,0.03272175416350365,0.0018841763958334923,0.022199023514986038,-0.06366671621799469,0.006933242082595825,0.00395545270293951,-0.008000503294169903,-0.05165805295109749,0.03684026002883911,0.025456145405769348,-0.03276622295379639,0.022134460508823395,0.04138336330652237,-0.020133018493652344,-0.019893214106559753,0.027452316135168076,0.0071157305501401424,-0.004603714682161808,-0.014659683220088482,0.026836996898055077,0.01640419289469719,0.0002793324529193342,0.024012047797441483,-0.013829590752720833,-0.031633082777261734,-0.054021842777729034,-0.02843393385410309,0.004508188460022211,0.024802612140774727,-0.049049194902181625,0.023524535819888115,0.03445803001523018,0.0027037272229790688,-0.011018478311598301,0.03657674044370651,-0.06756682693958282,0.01473083347082138,0.022541601210832596,0.016612375155091286,-0.057384371757507324,-0.0064546214416623116,-0.049552518874406815,0.04983712360262871,0.05211394652724266,-0.03665052354335785,0.04106713831424713,-0.023337434977293015,0.013676749542355537,-0.002535073785111308,-0.021792542189359665,-0.024012047797441483,-0.0020936757791787386,0.003926465753465891,0.028286362066864967,0.0193319134414196,0.020443974062800407,-0.023205675184726715,0.03516426682472229,-0.002877651248127222,0.011249554343521595,-0.011876898817718029,-0.02117656171321869,-0.014715022407472134,-0.017613671720027924,0.056203797459602356,0.0055602965876460075,0.0028671103063970804,-0.021155480295419693,-0.028950436040759087,-0.036365922540426254,-0.0009842516155913472,-0.024697205051779747,0.028375960886478424,0.010600139386951923,0.039317358285188675,-0.06108420714735985,-0.058143310248851776,0.022963235154747963,-0.004101192113012075,0.00585544016212225,0.025464050471782684,-0.04195256903767586,0.04321747273206711,-0.014022455550730228,0.01796160265803337,-0.031474970281124115,-0.010738282464444637,-0.020038150250911713,0.01970084197819233,-0.06096825748682022,0.01232883706688881,0.04724934324622154,-0.012185218743979931,-0.04040306434035301,0.01939515769481659,0.007397039327770472,-0.04423993453383446,0.0023110806941986084,0.05775066465139389,-0.0205520149320364,0.06820981949567795,-0.009760824963450432,-0.005934496875852346,-0.026526041328907013,-0.02681591361761093,-0.003093738341704011,-0.005822170991450548,-0.009663321077823639,0.01457799132913351,0.04016062617301941,-0.027692120522260666,-0.005566884763538837,0.02963361330330372,-0.025213705375790596,0.02455226704478264,-0.006962229032069445,0.017260637134313583,0.04869508743286133,-0.03134584426879883,0.016568893566727638,-0.032645002007484436,-0.03711432218551636,0.030689675360918045,0.02178628370165825,-0.0742918848991394,-0.0052704233676195145,0.028360148891806602,0.032539594918489456,0.02681591361761093,-0.012891455553472042,-0.0027630196418613195,0.0038526796270161867,0.03295332193374634,-0.015389636158943176,-0.062317486852407455,0.041509851813316345,0.02972518838942051,0.014546368271112442,0.03625524416565895,-0.006630192510783672,-0.013005304150283337,-0.030874138697981834,-0.0008485381840728223,0.03826327249407768,0.01376634556800127,-0.015342202968895435,-0.022758347913622856,0.04889898747205734,0.016619950532913208,-0.020876146852970123,0.006751412525773048,0.0043059359304606915,0.06537432968616486,-0.05287288501858711,-0.029914923012256622,-0.0027195385191589594,-0.024918561801314354,0.012295897118747234,0.042057979851961136,-0.06602786481380463,-0.029946547001600266,-0.03830543905496597,-0.015531937591731548,-0.0008748902473598719,0.02149805799126625,0.020828712731599808,-0.05609838664531708,-0.008005772717297077,0.06537432968616486,0.02463395893573761,0.027879223227500916,0.010101260617375374,0.0043896036222577095,0.03394943103194237,-0.0003689296427182853,-0.00665390957146883,-0.0684417188167572,-0.035122100263834,0.03349881246685982,0.008443218655884266,0.01783066615462303,-0.002018572296947241,0.02086033672094345,-0.08982909470796585,-0.016823191195726395,0.03267662599682808,0.004247961565852165,0.010564563795924187,-0.04543105140328407,-0.020343834534287453,0.005718409549444914,0.008659305050969124,0.01291649043560028,-0.005286234896630049,0.055149711668491364,-0.01822512410581112,-0.020475594326853752,-0.05711030960083008,-0.0018551889806985855,-0.014965367503464222,0.0028223118279129267,0.027880540117621422,-0.02624143846333027,0.03645024821162224,-0.0027742190286517143,0.010258879512548447,0.02875543013215065,0.0021292511373758316,0.006493161432445049,0.007352240849286318,0.03393296152353287,0.020681140944361687,0.03568076714873314,-0.00465230131521821,-0.023042291402816772,0.017076171934604645,0.007689547725021839,-0.040687669068574905,-0.054696451872587204,0.0291296299546957,-0.0032887442503124475,0.03286635875701904,-0.006772493943572044,-0.01619008183479309,0.04570511355996132,-0.01980625092983246,-0.022137096151709557,0.005109675694257021,-0.022863097488880157,0.04324909672141075,-0.03492182493209839,-0.0008116451790556312,-0.042479611933231354,-0.009855691343545914,-0.03424325957894325,0.0019790439400821924,-0.02228335104882717,-0.012575230561196804,-0.03366219624876976,-0.03840557485818863,-0.046643249690532684,0.031380102038383484,0.014092453755438328,0.014551638625562191,-0.0343361496925354,-0.038252733647823334,0.0445350781083107,0.01795567385852337,0.02609913796186447,0.0007009663386270404,0.040782537311315536,0.05053281784057617,-0.012722802348434925,-0.0310427937656641,-0.043014559894800186,0.023744573816657066,-0.00671978946775198,-0.022110743448138237,0.03576509281992912,0.07441838085651398,-0.009625769220292568,0.001011921325698495,-0.0697593241930008,0.007130883168429136,0.023021209985017776,0.016001006588339806,-0.03143807500600815,0.006136419717222452,0.042374204844236374,-0.020744387060403824,-0.003557535819709301,0.03749115765094757,-0.0508912093937397,0.018973523750901222,0.014141039922833443,-0.03594955801963806,-0.005838970188051462,0.006920065730810165,0.06355076283216476,-0.013094366528093815,0.06859983503818512,-0.04920466989278793,-0.0099606579169631,-0.05393751338124275,-0.0007872694404795766,0.003135901875793934,-0.022557413205504417,-0.006999121978878975,-0.04996888339519501,0.03571765869855881,0.015811270102858543,0.052546124905347824,-0.06811495125293732,0.02461814694106579,-0.0031859709415584803,-0.04540996998548508,0.06179044395685196,-0.06526891887187958,0.0028829218354076147,0.007379910442978144,-0.03591266646981239,-0.013434309512376785,-0.023390138521790504,0.00975028332322836,0.036661066114902496,0.08080349862575531,0.004390962887555361,-0.032438140362501144,-0.0033480364363640547,-0.04976334050297737,0.04626377671957016,-0.029962358996272087,-0.012880914844572544,-0.019932741299271584,0.027539445087313652,0.034729454666376114,-0.036829717457294464,-0.05013226717710495,0.0156314168125391,0.022177942097187042,-0.05289396643638611,0.040599387139081955,0.011175932362675667,-0.01728171855211258,-0.024491656571626663,-0.0386849083006382,-0.007357511203736067,-0.009223241358995438,-0.02948801778256893,0.04548375681042671,0.010372193530201912,0.019537458196282387,-0.04604241997003555,-0.008381291292607784,-0.052372198551893234,-0.014572720974683762,-0.025780275464057922,-0.00022893401910550892,0.04977387562394142,-0.013645126484334469,0.01656494103372097,0.025776324793696404,0.05205070227384567,0.010691053234040737,0.005312586668878794,-0.054190494120121,0.04742326959967613,-0.08580249547958374,0.017392396926879883,0.11434710025787354,0.007852931506931782,-0.0009908396750688553,0.018879974260926247,-0.093644879758358,0.05025612190365791,0.02557736448943615,0.05574246868491173,0.03770460933446884,-0.08620304614305496,-0.035422515124082565,-0.008232401683926582,0.013476472347974777,-0.031580377370119095,0.023931367322802544,0.0360022597014904,0.014878405258059502,0.03674012050032616,0.029345719143748283,-0.01622631587088108,-0.01173986867070198,0.07998394221067429,-0.007615761831402779,-0.03426302224397659,-0.016675619408488274,-0.041217345744371414,-0.002159555908292532,-0.0031200905796140432,-0.010245703160762787,0.030787179246544838,0.014377715066075325,-0.0043612755835056305,0.05166596174240112,0.01185845211148262,-0.01939515769481659,0.024294016882777214,-0.044250477105379105,0.05954260751605034,-0.007713264785706997,0.00854862667620182,0.04233204200863838,-0.01373208872973919,0.014704481698572636,-0.05816439166665077,-0.018475469201803207,-0.04798193275928497,0.013716276735067368,0.00420052744448185,-0.0034587152767926455,-0.0002424394915578887,0.01992417685687542,0.034183964133262634,0.0073258886113762856,-0.010613314807415009,-0.005186096765100956,-0.02781202271580696,0.018667221069335938,0.026225626468658447,0.012293921783566475,-0.02605697326362133,0.016543857753276825,0.0027906892355531454,-0.033388134092092514,0.012154419906437397,-0.028460286557674408,-0.06366671621799469,0.0070202043280005455,-0.011415736749768257,0.028694819658994675,-0.012559418566524982,0.035869184881448746,0.01436453964561224,0.030758190900087357,0.04187878221273422,0.0031200905796140432,-0.034199777990579605,-0.03362530097365379,-0.018522903323173523,-0.0016786298947408795,-0.028027616441249847,0.001701687928289175,-0.03485594317317009,0.007846343331038952,0.017898358404636383,0.047834362834692,0.054179951548576355,-0.015782281756401062,0.052572473883628845,0.029545992612838745,-0.0474272258579731,-0.006113279610872269,-0.031116580590605736,0.01166608277708292,0.02488693781197071,0.030236419290304184,0.0374094657599926,-0.004108953755348921,-4.743380850413814e-05,0.004253231454640627,0.0697382465004921,-0.01869485154747963,0.006150254514068365,-0.053312309086322784,-0.005134710110723972,-0.03131158649921417,-0.007734346203505993,0.03730405867099762,-0.034637220203876495,0.0763368085026741,-0.04547584801912308,-0.012248463928699493,-0.019479485228657722,0.03928573802113533,-0.04482495039701462,0.03537508100271225,-0.058275070041418076,-0.004790815059095621,0.029627684503793716,-0.0038309800438582897,0.028534073382616043,0.004485130310058594,-0.010825449600815773,0.048171669244766235,-0.03329853340983391,0.021947361528873444,-0.014720292761921883,-0.023673424497246742,-0.04456941783428192,0.03821320831775665,-0.038400307297706604,0.022736607119441032,0.015083951875567436,-0.032734598964452744,0.051444604992866516,0.028908271342515945,0.0011647635838016868,0.04499887302517891,-0.03324583172798157,-0.01644372195005417,0.04525185376405716,-0.059202663600444794,-0.030304934829473495,-0.030078306794166565,-0.011989554390311241,0.0014019326772540808,0.011421666480600834,-0.016833731904625893,0.004690676927566528,0.0016265844460576773,0.003399423323571682,-0.015427188016474247,0.013394225388765335,0.04313841834664345,-0.04016062617301941,-0.006801481358706951,0.01092031691223383,-0.008234377950429916,-0.0011891393223777413,-0.0029040032532066107,-0.03553846478462219,-0.011997460387647152,0.05118635296821594,0.04127795621752739,0.003162254113703966,-0.0011476346990093589,-0.053157493472099304,0.008592931553721428,-0.02057836763560772,-0.007415485568344593,0.059534702450037,-0.02673422358930111,-0.0016918058972805738,-0.020812902599573135,0.028743570670485497,0.020723305642604828,0.0011081065749749541,-0.02150200866162777,0.02238875813782215,0.0280623696744442,0.023300541564822197,-0.036618899554014206,0.02729782834649086,0.018657298758625984
